svm_type nu_svr
kernel_type rbf
gamma 0.0769231
nr_class 2
total_sv 196
rho -21.0349
SV
1 1:9.2323 3:18.1 5:0.631 6:6.216 7:100 8:1.1691 9:24 10:666 11:20.2 12:366.15 13:9.53 
-1 1:24.8017 3:18.1 5:0.693 6:5.349 7:96 8:1.7028 9:24 10:666 11:20.2 12:396.9 13:19.77 
-1 1:2.63548 3:9.9 5:0.544 6:4.973 7:37.8 8:2.5194 9:4 10:304 11:18.4 12:350.45 13:12.64 
-1 1:73.5341 3:18.1 5:0.679 6:5.957 7:100 8:1.8026 9:24 10:666 11:20.2 12:16.45 13:20.62 
-0.3930516324134015 1:14.0507 3:18.1 5:0.597 6:6.657 7:100 8:1.5275 9:24 10:666 11:20.2 12:35.05 13:21.22 
-1 1:6.28807 3:18.1 5:0.74 6:6.341 7:96.4 8:2.072 9:24 10:666 11:20.2 12:318.01 13:17.79 
-1 1:24.3938 3:18.1 5:0.7 6:4.652 7:100 8:1.4672 9:24 10:666 11:20.2 12:396.9 13:28.28 
1 1:1.83377 3:19.58 4:1 5:0.605 6:7.802 7:98.2 8:2.0407 9:5 10:403 11:14.7 12:389.61 13:1.92 
1 1:0.05561 2:70 3:2.24 5:0.4 6:7.041 7:10 8:7.8278 9:5 10:358 11:14.8 12:371.58 13:4.74 
1 1:0.04011 2:80 3:1.52 5:0.404 6:7.287 7:34.1 8:7.309 9:2 10:329 11:12.6 12:396.9 13:4.08 
1 1:0.06664 3:4.05 5:0.51 6:6.546 7:33.1 8:3.1323 9:5 10:296 11:16.6 12:390.96 13:5.33 
1 1:0.07978 2:40 3:6.41 5:0.447 6:6.482 7:32.1 8:4.1403 9:4 10:254 11:17.6 12:396.9 13:7.19 
1 1:0.12083 3:2.89 5:0.445 6:8.069 7:76 8:3.4952 9:2 10:276 11:18 12:396.9 13:4.21 
-1 1:10.233 3:18.1 5:0.614 6:6.185 7:96.7 8:2.1705 9:24 10:666 11:20.2 12:379.7 13:18.03 
-0.7966776097431296 1:4.22239 3:18.1 4:1 5:0.77 6:5.803 7:89 8:1.9047 9:24 10:666 11:20.2 12:353.04 13:14.64 
-1 1:25.0461 3:18.1 5:0.693 6:5.987 7:100 8:1.5888 9:24 10:666 11:20.2 12:396.9 13:26.77 
1 1:8.26725 3:18.1 4:1 5:0.668 6:5.875 7:89.6 8:1.1296 9:24 10:666 11:20.2 12:347.88 13:8.88 
-1 1:8.49213 3:18.1 5:0.584 6:6.348 7:86.1 8:2.0527 9:24 10:666 11:20.2 12:83.45 13:17.64 
-1 1:6.39312 3:18.1 5:0.584 6:6.162 7:97.4 8:2.206 9:24 10:666 11:20.2 12:302.76 13:24.1 
-1 1:8.05579 3:18.1 5:0.584 6:5.427 7:95.4 8:2.4298 9:24 10:666 11:20.2 12:352.58 13:18.14 
-1 1:0.02498 3:1.89 5:0.518 6:6.54 7:59.7 8:6.2669 9:1 10:422 11:15.9 12:389.96 13:8.65 
-0.5924592195920528 1:1.41385 3:19.58 4:1 5:0.871 6:6.129 7:96 8:1.7494 9:5 10:403 11:14.7 12:321.02 13:15.12 
-1 1:2.77974 3:19.58 5:0.871 6:4.903 7:97.8 8:1.3459 9:5 10:403 11:14.7 12:396.9 13:29.29 
1 1:0.14866 3:8.56 5:0.52 6:6.727 7:79.9 8:2.7778 9:5 10:384 11:20.9 12:394.76 13:9.42 
-1 1:3.53501 3:19.58 4:1 5:0.871 6:6.152 7:82.6 8:1.7455 9:5 10:403 11:14.7 12:88.01 13:15.02 
1 1:0.36894 2:22 3:5.86 5:0.431 6:8.259 7:8.4 8:8.9067 9:7 10:330 11:19.1 12:396.9 13:3.54 
-1 1:0.97617 3:21.89 5:0.624 6:5.757 7:98.4 8:2.346 9:4 10:437 11:21.2 12:262.76 13:17.31 
-0.4924581344826695 1:0.05023 2:35 3:6.06 5:0.4379 6:5.706 7:28.4 8:6.6407 9:1 10:304 11:16.9 12:394.02 13:12.43 
-0.3924592157304083 1:0.06162 3:4.39 5:0.442 6:5.898 7:52.3 8:8.0136 9:3 10:352 11:18.8 12:364.61 13:12.67 
-1 1:51.1358 3:18.1 5:0.597 6:5.757 7:100 8:1.413 9:24 10:666 11:20.2 12:2.6 13:10.11 
1 1:0.1 2:34 3:6.09 5:0.433 6:6.982 7:17.7 8:5.4917 9:7 10:329 11:16.1 12:390.43 13:4.86 
1 1:0.44178 3:6.2 5:0.504 6:6.552 7:21.4 8:3.3751 9:8 10:307 11:17.4 12:380.34 13:3.76 
1 1:0.12579 2:45 3:3.44 5:0.437 6:6.556 7:29.1 8:4.5667 9:5 10:398 11:15.2 12:382.84 13:4.56 
-1 1:5.44114 3:18.1 5:0.713 6:6.655 7:98.2 8:2.3552 9:24 10:666 11:20.2 12:355.29 13:17.73 
-1 1:0.22489 2:12.5 3:7.87 5:0.524 6:6.377 7:94.3 8:6.3467 9:5 10:311 11:15.2 12:392.52 13:20.45 
1 1:14.4383 3:18.1 5:0.597 6:6.852 7:100 8:1.4655 9:24 10:666 11:20.2 12:179.36 13:19.78 
1 1:0.03049 2:55 3:3.78 5:0.484 6:6.874 7:28.1 8:6.4654 9:5 10:370 11:17.6 12:387.97 13:4.61 
-1 1:22.5971 3:18.1 5:0.7 6:5 7:89.5 8:1.5184 9:24 10:666 11:20.2 12:396.9 13:31.99 
1 1:0.33147 3:6.2 5:0.507 6:8.247 7:70.4 8:3.6519 9:8 10:307 11:17.4 12:378.95 13:3.95 
-0.4119467869815949 1:0.35233 3:21.89 5:0.624 6:6.454 7:98.4 8:1.8498 9:4 10:437 11:21.2 12:394.08 13:14.59 
1 1:11.9511 3:18.1 5:0.659 6:5.608 7:100 8:1.2852 9:24 10:666 11:20.2 12:332.09 13:12.13 
1 1:0.31533 3:6.2 5:0.504 6:8.266 7:78.3 8:2.8944 9:8 10:307 11:17.4 12:385.05 13:4.14 
1 1:0.52693 3:6.2 5:0.504 6:8.725 7:83 8:2.8944 9:8 10:307 11:17.4 12:382 13:4.63 
-1 1:12.2472 3:18.1 5:0.584 6:5.837 7:59.7 8:1.9976 9:24 10:666 11:20.2 12:24.65 13:15.69 
-1 1:11.1604 3:18.1 5:0.74 6:6.629 7:94.6 8:2.1247 9:24 10:666 11:20.2 12:109.85 13:23.27 
0.322997894588287 1:0.04417 2:70 3:2.24 5:0.4 6:6.871 7:47.4 8:7.8278 9:5 10:358 11:14.8 12:390.86 13:6.07 
-1 1:0.04741 3:11.93 5:0.573 6:6.03 7:80.8 8:2.505 9:1 10:273 11:21 12:396.9 13:7.88 
-1 1:18.4982 3:18.1 5:0.668 6:4.138 7:100 8:1.137 9:24 10:666 11:20.2 12:396.9 13:37.97 
0.223269867257633 1:0.02055 2:85 3:0.74 5:0.41 6:6.383 7:35.7 8:9.1876 9:2 10:313 11:17.3 12:396.9 13:5.77 
-1 1:4.75237 3:18.1 5:0.713 6:6.525 7:86.5 8:2.4358 9:24 10:666 11:20.2 12:50.92 13:18.13 
1 1:0.14052 3:10.59 5:0.489 6:6.375 7:32.3 8:3.9454 9:4 10:277 11:18.6 12:385.81 13:9.38 
1 1:0.35809 3:6.2 4:1 5:0.507 6:6.951 7:88.5 8:2.8617 9:8 10:307 11:17.4 12:391.7 13:9.71 
-1 1:25.9406 3:18.1 5:0.679 6:5.304 7:89.1 8:1.6475 9:24 10:666 11:20.2 12:127.36 13:26.64 
1 1:0.09266 2:34 3:6.09 5:0.433 6:6.495 7:18.4 8:5.4917 9:7 10:329 11:16.1 12:383.61 13:8.67 
1 1:1.22358 3:19.58 5:0.605 6:6.943 7:97.4 8:1.8773 9:5 10:403 11:14.7 12:363.43 13:4.59 
-0.3918870375087753 1:7.40389 3:18.1 5:0.597 6:5.617 7:97.9 8:1.4547 9:24 10:666 11:20.2 12:314.64 13:26.4 
1 1:0.14455 2:12.5 3:7.87 5:0.524 6:6.172 7:96.1 8:5.9505 9:5 10:311 11:15.2 12:396.9 13:19.15 
-1 1:0.21124 2:12.5 3:7.87 5:0.524 6:5.631 7:100 8:6.0821 9:5 10:311 11:15.2 12:386.63 13:29.93 
-1 1:13.6781 3:18.1 5:0.74 6:5.935 7:87.9 8:1.8206 9:24 10:666 11:20.2 12:68.95 13:34.02 
-1 1:11.5779 3:18.1 5:0.7 6:5.036 7:97 8:1.77 9:24 10:666 11:20.2 12:396.9 13:25.68 
1 1:0.01501 2:90 3:1.21 4:1 5:0.401 6:7.923 7:24.8 8:5.885 9:1 10:198 11:13.6 12:395.52 13:3.16 
1 1:0.06911 2:45 3:3.44 5:0.437 6:6.739 7:30.8 8:6.4798 9:5 10:398 11:15.2 12:389.71 13:4.69 
-1 1:7.99248 3:18.1 5:0.7 6:5.52 7:100 8:1.5331 9:24 10:666 11:20.2 12:396.9 13:24.56 
1 1:0.07503 2:33 3:2.18 5:0.472 6:7.42 7:71.9 8:3.0992 9:7 10:222 11:18.4 12:396.9 13:6.47 
1 1:0.10469 2:40 3:6.41 4:1 5:0.447 6:7.267 7:49 8:4.7872 9:4 10:254 11:17.6 12:389.25 13:6.05 
-1 1:8.71675 3:18.1 5:0.693 6:6.471 7:98.8 8:1.7257 9:24 10:666 11:20.2 12:391.98 13:17.12 
-1 1:10.8342 3:18.1 5:0.679 6:6.782 7:90.8 8:1.8195 9:24 10:666 11:20.2 12:21.57 13:25.79 
-1 1:0.10574 3:27.74 5:0.609 6:5.983 7:98.8 8:1.8681 9:4 10:711 11:20.1 12:390.11 13:18.07 
-0.19324937837367 1:1.20742 3:19.58 5:0.605 6:5.875 7:94.6 8:2.4259 9:5 10:403 11:14.7 12:292.29 13:14.43 
-1 1:11.8123 3:18.1 5:0.718 6:6.824 7:76.5 8:1.794 9:24 10:666 11:20.2 12:48.45 13:22.74 
1 1:0.01311 2:90 3:1.22 5:0.403 6:7.249 7:21.9 8:8.6966 9:5 10:226 11:17.9 12:395.93 13:4.81 
-1 1:3.32105 3:19.58 4:1 5:0.871 6:5.403 7:100 8:1.3216 9:5 10:403 11:14.7 12:396.9 13:26.82 
1 1:0.19073 2:22 3:5.86 5:0.431 6:6.718 7:17.5 8:7.8265 9:7 10:330 11:19.1 12:393.74 13:6.56 
-1 1:18.0846 3:18.1 5:0.679 6:6.434 7:100 8:1.8347 9:24 10:666 11:20.2 12:27.25 13:29.05 
-1 1:23.6482 3:18.1 5:0.671 6:6.38 7:96.2 8:1.3861 9:24 10:666 11:20.2 12:396.9 13:23.69 
0.02300119779619259 1:0.27957 3:9.69 5:0.585 6:5.926 7:42.6 8:2.3817 9:6 10:391 11:19.2 12:396.9 13:13.59 
1 1:0.0578 3:2.46 5:0.488 6:6.98 7:58.4 8:2.829 9:3 10:193 11:17.8 12:396.9 13:5.04 
0.5236144559383327 1:0.0536 2:21 3:5.64 5:0.439 6:6.511 7:21.1 8:6.8147 9:4 10:243 11:16.8 12:396.9 13:5.28 
-0.992024827047711 1:0.67191 3:8.14 5:0.538 6:5.813 7:90.3 8:4.682 9:4 10:307 11:21 12:376.88 13:14.81 
1 1:0.01778 2:95 3:1.47 5:0.403 6:7.135 7:13.9 8:7.6534 9:3 10:402 11:17 12:384.3 13:4.45 
1 1:0.06905 3:2.18 5:0.458 6:7.147 7:54.2 8:6.0622 9:3 10:222 11:18.7 12:396.9 13:5.33 
-1 1:7.36711 3:18.1 5:0.679 6:6.193 7:78.1 8:1.9356 9:24 10:666 11:20.2 12:96.73 13:21.52 
-1 1:16.8118 3:18.1 5:0.7 6:5.277 7:98.1 8:1.4261 9:24 10:666 11:20.2 12:396.9 13:30.81 
1 1:0.02985 3:2.18 5:0.458 6:6.43 7:58.7 8:6.0622 9:3 10:222 11:18.7 12:394.12 13:5.21 
-1 1:1.62864 3:21.89 5:0.624 6:5.019 7:100 8:1.4394 9:4 10:437 11:21.2 12:396.9 13:34.41 
-1 1:1.23247 3:8.14 5:0.538 6:6.142 7:91.7 8:3.9769 9:4 10:307 11:21 12:396.9 13:18.72 
-0.1930565507043518 1:0.13554 2:12.5 3:6.07 5:0.409 6:5.594 7:36.8 8:6.498 9:4 10:345 11:18.9 12:396.9 13:13.09 
-1 1:1.25179 3:8.14 5:0.538 6:5.57 7:98.1 8:3.7979 9:4 10:307 11:21 12:376.57 13:21.02 
-1 1:15.1772 3:18.1 5:0.74 6:6.152 7:100 8:1.9142 9:24 10:666 11:20.2 12:9.32 13:26.45 
1 1:0.03705 2:20 3:3.33 5:0.4429 6:6.968 7:37.2 8:5.2447 9:5 10:216 11:14.9 12:392.23 13:4.59 
1 1:0.46296 3:6.2 5:0.504 6:7.412 7:76.9 8:3.6715 9:8 10:307 11:17.4 12:376.14 13:5.25 
1 1:0.01951 2:17.5 3:1.38 5:0.4161 6:7.104 7:59.5 8:9.2229 9:3 10:216 11:18.6 12:393.24 13:8.05 
0.5229990962886291 1:4.54192 3:18.1 5:0.77 6:6.398 7:88 8:2.5182 9:24 10:666 11:20.2 12:374.56 13:7.79 
-1 1:13.3598 3:18.1 5:0.693 6:5.887 7:94.7 8:1.7821 9:24 10:666 11:20.2 12:396.9 13:16.35 
1 1:0.01439 2:60 3:2.93 5:0.401 6:6.604 7:18.8 8:6.2196 9:1 10:265 11:15.6 12:376.7 13:4.38 
-1 1:15.0234 3:18.1 5:0.614 6:5.304 7:97.3 8:2.1007 9:24 10:666 11:20.2 12:349.48 13:24.91 
1 1:1.27346 3:19.58 4:1 5:0.605 6:6.25 7:92.6 8:1.7984 9:5 10:403 11:14.7 12:338.92 13:5.5 
-1 1:17.8667 3:18.1 5:0.671 6:6.223 7:100 8:1.3861 9:24 10:666 11:20.2 12:393.74 13:21.78 
-0.05761168839318387 1:0.17783 3:9.69 5:0.585 6:5.569 7:73.5 8:2.3999 9:6 10:391 11:19.2 12:395.77 13:15.1 
1 1:4.64689 3:18.1 5:0.614 6:6.98 7:67.6 8:2.5329 9:24 10:666 11:20.2 12:374.68 13:11.66 
-1 1:7.75223 3:18.1 5:0.713 6:6.301 7:83.7 8:2.7831 9:24 10:666 11:20.2 12:272.21 13:16.23 
-1 1:37.6619 3:18.1 5:0.679 6:6.202 7:78.7 8:1.8629 9:24 10:666 11:20.2 12:18.82 13:14.52 
0.1230011977923944 1:0.19186 3:7.38 5:0.493 6:6.431 7:14.7 8:5.4159 9:5 10:287 11:19.6 12:393.68 13:5.08 
0.5229891240390891 1:0.1265 2:25 3:5.13 5:0.453 6:6.762 7:43.4 8:7.9809 9:8 10:284 11:19.7 12:395.58 13:9.5 
0.02302271827074165 1:0.01501 2:80 3:2.01 5:0.435 6:6.635 7:29.7 8:8.344 9:4 10:280 11:17 12:390.94 13:5.99 
1 1:0.05602 3:2.46 5:0.488 6:7.831 7:53.6 8:3.1992 9:3 10:193 11:17.8 12:392.63 13:4.45 
-1 1:5.58107 3:18.1 5:0.713 6:6.436 7:87.9 8:2.3158 9:24 10:666 11:20.2 12:100.19 13:16.22 
-1 1:0.6718 3:18.1 5:0.74 6:6.459 7:94.8 8:1.9879 9:24 10:666 11:20.2 12:43.06 13:23.98 
1 1:0.82526 2:20 3:3.97 5:0.647 6:7.327 7:94.5 8:2.0788 9:5 10:264 11:13 12:393.42 13:11.25 
1 1:0.05302 3:3.41 5:0.489 6:7.079 7:63.1 8:3.4145 9:2 10:270 11:17.8 12:396.06 13:5.7 
-1 1:0.25356 3:9.9 5:0.544 6:5.705 7:77.7 8:3.945 9:4 10:304 11:18.4 12:396.42 13:11.5 
1 1:0.5405 2:20 3:3.97 5:0.575 6:7.47 7:52.6 8:2.872 9:5 10:264 11:13 12:390.3 13:3.16 
0.523022729197951 1:0.02875 2:28 3:15.04 5:0.464 6:6.211 7:28.9 8:3.6659 9:4 10:270 11:18.2 12:396.33 13:6.21 
1 1:0.06129 2:20 3:3.33 4:1 5:0.4429 6:7.645 7:49.7 8:5.2119 9:5 10:216 11:14.9 12:377.07 13:3.01 
1 1:0.53412 2:20 3:3.97 5:0.647 6:7.52 7:89.4 8:2.1398 9:5 10:264 11:13 12:388.37 13:7.26 
1 1:0.03768 2:80 3:1.52 5:0.404 6:7.274 7:38.3 8:7.309 9:2 10:329 11:12.6 12:392.2 13:6.62 
-1 1:2.37934 3:19.58 5:0.871 6:6.13 7:100 8:1.4191 9:5 10:403 11:14.7 12:172.91 13:27.8 
1 1:0.05735 3:4.49 5:0.449 6:6.63 7:56.1 8:4.4377 9:3 10:247 11:18.5 12:392.3 13:6.53 
0.5761787630368413 1:0.52058 3:6.2 4:1 5:0.507 6:6.631 7:76.5 8:4.148 9:8 10:307 11:17.4 12:388.45 13:9.54 
-1 1:14.4208 3:18.1 5:0.74 6:6.461 7:93.3 8:2.0026 9:24 10:666 11:20.2 12:27.49 13:18.05 
-1 1:9.33889 3:18.1 5:0.679 6:6.38 7:95.6 8:1.9682 9:24 10:666 11:20.2 12:60.72 13:24.08 
-1 1:0.2909 3:21.89 5:0.624 6:6.174 7:93.6 8:1.6119 9:4 10:437 11:21.2 12:388.08 13:24.16 
1 1:0.11432 3:8.56 5:0.52 6:6.781 7:71.3 8:2.8561 9:5 10:384 11:20.9 12:395.58 13:7.67 
-1 1:8.64476 3:18.1 5:0.693 6:6.193 7:92.6 8:1.7912 9:24 10:666 11:20.2 12:396.9 13:15.17 
1 1:0.02729 3:7.07 5:0.469 6:7.185 7:61.1 8:4.9671 9:2 10:242 11:17.8 12:392.83 13:4.03 
-1 1:28.6558 3:18.1 5:0.597 6:5.155 7:100 8:1.5894 9:24 10:666 11:20.2 12:210.97 13:20.08 
-0.09302686663457571 1:0.7842 3:8.14 5:0.538 6:5.99 7:81.7 8:4.2579 9:4 10:307 11:21 12:386.75 13:14.67 
-1 1:2.15505 3:19.58 5:0.871 6:5.628 7:100 8:1.5166 9:5 10:403 11:14.7 12:169.27 13:16.65 
-1 1:1.13081 3:8.14 5:0.538 6:5.713 7:94.1 8:4.233 9:4 10:307 11:21 12:360.17 13:22.6 
-1 1:4.66883 3:18.1 5:0.713 6:5.976 7:87.9 8:2.5806 9:24 10:666 11:20.2 12:10.48 13:19.01 
1 1:0.08221 2:22 3:5.86 5:0.431 6:6.957 7:6.8 8:8.9067 9:7 10:330 11:19.1 12:386.09 13:3.53 
-0.4222566864266124 1:9.72418 3:18.1 5:0.74 6:6.406 7:97.2 8:2.0651 9:24 10:666 11:20.2 12:385.96 13:19.52 
1 1:0.55007 2:20 3:3.97 5:0.647 6:7.206 7:91.6 8:1.9301 9:5 10:264 11:13 12:387.89 13:8.1 
-0.1932392514835382 1:0.32264 3:21.89 5:0.624 6:5.942 7:93.5 8:1.9669 9:4 10:437 11:21.2 12:378.25 13:16.9 
1 1:0.09068 2:45 3:3.44 5:0.437 6:6.951 7:21.5 8:6.4798 9:5 10:398 11:15.2 12:377.68 13:5.1 
1 1:0.06888 3:2.46 5:0.488 6:6.144 7:62.2 8:2.5979 9:3 10:193 11:17.8 12:396.9 13:9.45 
-1 1:0.38735 3:25.65 5:0.581 6:5.613 7:95.6 8:1.7572 9:2 10:188 11:19.1 12:359.29 13:27.26 
1 1:0.00906 2:90 3:2.97 5:0.4 6:7.088 7:20.8 8:7.3073 9:1 10:285 11:15.3 12:394.72 13:7.85 
-1 1:1.61282 3:8.14 5:0.538 6:6.096 7:96.9 8:3.7598 9:4 10:307 11:21 12:248.31 13:20.34 
-1 1:9.82349 3:18.1 5:0.671 6:6.794 7:98.8 8:1.358 9:24 10:666 11:20.2 12:396.9 13:21.24 
-1 1:8.79212 3:18.1 5:0.584 6:5.565 7:70.6 8:2.0635 9:24 10:666 11:20.2 12:3.65 13:17.16 
1 1:0.57529 3:6.2 5:0.507 6:8.337 7:73.3 8:3.8384 9:8 10:307 11:17.4 12:385.91 13:2.47 
-1 1:1.15172 3:8.14 5:0.538 6:5.701 7:95 8:3.7872 9:4 10:307 11:21 12:358.77 13:18.35 
0.5230011978106681 1:5.73116 3:18.1 5:0.532 6:7.061 7:77 8:3.4106 9:24 10:666 11:20.2 12:395.28 13:7.01 
-1 1:0.17171 2:25 3:5.13 5:0.453 6:5.966 7:93.4 8:6.8185 9:8 10:284 11:19.7 12:378.08 13:14.44 
1 1:0.0315 2:95 3:1.47 5:0.403 6:6.975 7:15.3 8:7.6534 9:3 10:402 11:17 12:396.9 13:4.56 
0.7236144559383302 1:0.16211 2:20 3:6.96 5:0.464 6:6.24 7:16.3 8:4.429 9:3 10:223 11:18.6 12:396.9 13:6.59 
0.323269867296645 1:0.04297 2:52.5 3:5.32 5:0.405 6:6.565 7:22.9 8:7.3172 9:6 10:293 11:16.6 12:371.72 13:9.51 
-1 1:12.8023 3:18.1 5:0.74 6:5.854 7:96.6 8:1.8956 9:24 10:666 11:20.2 12:240.52 13:23.79 
1 1:4.55587 3:18.1 5:0.718 6:3.561 7:87.9 8:1.6132 9:24 10:666 11:20.2 12:354.7 13:7.12 
-0.09305655070544816 1:0.03113 3:4.39 5:0.442 6:6.014 7:48.5 8:8.0136 9:3 10:352 11:18.8 12:385.64 13:10.53 
-1 1:8.20058 3:18.1 5:0.713 6:5.936 7:80.3 8:2.7792 9:24 10:666 11:20.2 12:3.5 13:16.94 
1 1:0.07013 3:13.89 5:0.55 6:6.642 7:85.1 8:3.4211 9:5 10:276 11:16.4 12:392.78 13:9.69 
-1 1:0.95577 3:8.14 5:0.538 6:6.047 7:88.8 8:4.4534 9:4 10:307 11:21 12:306.38 13:17.28 
1 1:0.12932 3:13.92 5:0.437 6:6.678 7:31.1 8:5.9604 9:4 10:289 11:16 12:396.9 13:6.27 
-1 1:2.44668 3:19.58 5:0.871 6:5.272 7:94 8:1.7364 9:5 10:403 11:14.7 12:88.63 13:16.14 
-1 1:9.18702 3:18.1 5:0.7 6:5.536 7:100 8:1.5804 9:24 10:666 11:20.2 12:396.9 13:23.6 
-1 1:0.2498 3:21.89 5:0.624 6:5.857 7:98.2 8:1.6686 9:4 10:437 11:21.2 12:392.04 13:21.32 
0.5229976629196802 1:0.19802 3:10.59 5:0.489 6:6.182 7:42.4 8:3.9454 9:4 10:277 11:18.6 12:393.63 13:9.47 
-1 1:9.39063 3:18.1 5:0.74 6:5.627 7:93.9 8:1.8172 9:24 10:666 11:20.2 12:396.9 13:22.88 
1 1:0.0837 2:45 3:3.44 5:0.437 6:7.185 7:38.9 8:4.5667 9:5 10:398 11:15.2 12:396.9 13:5.39 
1 1:0.02009 2:95 3:2.68 5:0.4161 6:8.034 7:31.9 8:5.118 9:4 10:224 11:14.7 12:390.55 13:2.88 
1 1:0.44791 3:6.2 4:1 5:0.507 6:6.726 7:66.5 8:3.6519 9:8 10:307 11:17.4 12:360.2 13:8.05 
1 1:0.65665 2:20 3:3.97 5:0.647 6:6.842 7:100 8:2.0107 9:5 10:264 11:13 12:391.93 13:6.9 
-1 1:0.75026 3:8.14 5:0.538 6:5.924 7:94.1 8:4.3996 9:4 10:307 11:21 12:394.33 13:16.3 
1 1:0.6147 3:6.2 5:0.507 6:6.618 7:80.8 8:3.2721 9:8 10:307 11:17.4 12:396.9 13:7.6 
-1 1:0.88125 3:21.89 5:0.624 6:5.637 7:94.7 8:1.9799 9:4 10:437 11:21.2 12:396.9 13:18.34 
1 1:2.01019 3:19.58 5:0.605 6:7.929 7:96.2 8:2.0459 9:5 10:403 11:14.7 12:369.3 13:3.7 
-1 1:9.91655 3:18.1 5:0.693 6:5.852 7:77.8 8:1.5004 9:24 10:666 11:20.2 12:338.16 13:29.97 
1 1:0.03359 2:75 3:2.95 5:0.428 6:7.024 7:15.8 8:5.4011 9:3 10:252 11:18.3 12:395.62 13:1.98 
1 1:0.05644 2:40 3:6.41 4:1 5:0.447 6:6.758 7:32.9 8:4.0776 9:4 10:254 11:17.6 12:396.9 13:3.53 
-1 1:45.7461 3:18.1 5:0.693 6:4.519 7:100 8:1.6582 9:24 10:666 11:20.2 12:88.27 13:36.98 
-0.791538563778877 1:0.22438 3:9.69 5:0.585 6:6.027 7:79.7 8:2.4982 9:6 10:391 11:19.2 12:396.9 13:14.33 
1 1:0.29819 3:6.2 5:0.504 6:7.686 7:17 8:3.3751 9:8 10:307 11:17.4 12:377.51 13:3.92 
1 1:1.46336 3:19.58 5:0.605 6:7.489 7:90.8 8:1.9709 9:5 10:403 11:14.7 12:374.43 13:1.73 
-1 1:2.73397 3:19.58 5:0.871 6:5.597 7:94.9 8:1.5257 9:5 10:403 11:14.7 12:351.85 13:21.45 
-1 1:1.12658 3:19.58 4:1 5:0.871 6:5.012 7:88 8:1.6102 9:5 10:403 11:14.7 12:343.28 13:12.12 
-1 1:20.7162 3:18.1 5:0.659 6:4.138 7:100 8:1.1781 9:24 10:666 11:20.2 12:370.22 13:23.34 
1 1:0.51183 3:6.2 5:0.507 6:7.358 7:71.6 8:4.148 9:8 10:307 11:17.4 12:390.07 13:4.73 
1 1:0.54011 2:20 3:3.97 5:0.647 6:7.203 7:81.8 8:2.1121 9:5 10:264 11:13 12:392.8 13:9.59 
-1 1:67.9208 3:18.1 5:0.693 6:5.683 7:100 8:1.4254 9:24 10:666 11:20.2 12:384.97 13:22.98 
0.02301977182858472 1:0.16439 2:22 3:5.86 5:0.431 6:6.433 7:49.1 8:7.8265 9:7 10:330 11:19.1 12:374.71 13:9.52 
-1 1:6.96215 3:18.1 5:0.7 6:5.713 7:97 8:1.9265 9:24 10:666 11:20.2 12:394.43 13:17.11 
1 1:0.05372 3:13.92 5:0.437 6:6.549 7:51 8:5.9604 9:4 10:289 11:16 12:392.85 13:7.39 
1 1:0.38214 3:6.2 5:0.504 6:8.04 7:86.5 8:3.2157 9:8 10:307 11:17.4 12:387.38 13:3.13 
-1 1:13.9134 3:18.1 5:0.713 6:6.208 7:95 8:2.2222 9:24 10:666 11:20.2 12:100.63 13:15.17 
1 1:0.03237 3:2.18 5:0.458 6:6.998 7:45.8 8:6.0622 9:3 10:222 11:18.7 12:394.63 13:2.94 
1 1:0.01709 2:90 3:2.02 5:0.41 6:6.728 7:36.1 8:12.1265 9:5 10:187 11:17 12:384.46 13:4.5 
1 1:0.03578 2:20 3:3.33 5:0.4429 6:7.82 7:64.5 8:4.6947 9:5 10:216 11:14.9 12:387.31 13:3.76 
1 1:0.08308 3:2.46 5:0.488 6:5.604 7:89.8 8:2.9879 9:3 10:193 11:17.8 12:391 13:13.98 
-1 1:88.9762 3:18.1 5:0.671 6:6.968 7:91.9 8:1.4165 9:24 10:666 11:20.2 12:396.9 13:17.21 
1 1:0.09604 2:40 3:6.41 5:0.447 6:6.854 7:42.8 8:4.2673 9:4 10:254 11:17.6 12:396.9 13:2.98 
1 1:0.09103 3:2.46 5:0.488 6:7.155 7:92.2 8:2.7006 9:3 10:193 11:17.8 12:394.12 13:4.82 
1 1:0.04113 2:25 3:4.86 5:0.426 6:6.727 7:33.5 8:5.4007 9:4 10:281 11:19 12:396.9 13:5.29 
1 1:0.04932 2:33 3:2.18 5:0.472 6:6.849 7:70.3 8:3.1827 9:7 10:222 11:18.4 12:396.9 13:7.53 
1 1:0.66351 2:20 3:3.97 5:0.647 6:7.333 7:100 8:1.8946 9:5 10:264 11:13 12:383.29 13:7.79 
